{
  "input_nodes": 5,
  "hidden_nodes": 8,
  "output_nodes": 2,
  "weights_ih": {
    "rows": 8,
    "cols": 5,
    "data": [
      [
        0.4077662819753023,
        0.5161928363480377,
        0.14510319074069544,
        0.3542027453315346,
        -0.15214721554978405
      ],
      [
        0.9742940043987831,
        -0.28659992349589336,
        0.8224800365362421,
        -0.007952022437114792,
        -0.8613680545147164
      ],
      [
        0.46487851885025,
        -0.22674184220579718,
        0.027866925034518264,
        -0.44133957576779936,
        0.25518855892524295
      ],
      [
        -0.4234734336940935,
        -0.19139157339821855,
        -0.9593744439933016,
        0.3571520005389992,
        0.9033280267760109
      ],
      [
        0.9114429156668242,
        -0.6151775808113173,
        0.09953362619153427,
        -0.585629097221994,
        -0.639217950775326
      ],
      [
        -0.5922734298931123,
        0.26632159206438644,
        -0.13471437161445188,
        -0.711986325642199,
        -0.05001134842650501
      ],
      [
        -0.6653906185499654,
        0.43813941939735823,
        0.7648953079800345,
        -0.7269064234262288,
        0.47461259352291174
      ],
      [
        -0.9490424164645215,
        0.45722150873821343,
        -0.11091785337037408,
        0.06752473482468169,
        -0.8470220761467382
      ]
    ]
  },
  "weights_ho": {
    "rows": 2,
    "cols": 8,
    "data": [
      [
        -0.7000229979547372,
        -0.07480638882488444,
        -0.13371056418825455,
        -0.9613194200306254,
        -0.847241049995294,
        0.2043265228628912,
        -0.31325915613844835,
        -0.9872820858122995
      ],
      [
        -0.4684722253056872,
        -0.7771166924541464,
        0.16262001951323102,
        -0.2226760581512659,
        -0.40808183287889266,
        0.12445894565805782,
        -0.3235541407772029,
        0.9948976395066969
      ]
    ]
  },
  "bias_h": {
    "rows": 8,
    "cols": 1,
    "data": [
      [
        -0.43697145408059956
      ],
      [
        0.8351989664880719
      ],
      [
        -0.6681061903447705
      ],
      [
        0.5462946942432136
      ],
      [
        -0.8207302154997498
      ],
      [
        -0.6098675998473242
      ],
      [
        0.26528680968267393
      ],
      [
        -0.12787008310790693
      ]
    ]
  },
  "bias_o": {
    "rows": 2,
    "cols": 1,
    "data": [
      [
        0.4625195166105578
      ],
      [
        -0.33853781202736233
      ]
    ]
  },
  "learning_rate": 0.1,
  "activation_function": {}
}
