{
  "input_nodes": 5,
  "hidden_nodes": 8,
  "output_nodes": 2,
  "weights_ih": {
    "rows": 8,
    "cols": 5,
    "data": [
      [
        0.2477718784660654,
        -0.22563528535210553,
        0.6125126358172257,
        0.7890325277398977,
        -0.06998244153849642
      ],
      [
        -0.5092843349763063,
        0.5312427377610063,
        -0.7352881759200707,
        0.5049457873672325,
        0.14508639631917974
      ],
      [
        -0.13502949799539188,
        0.6858227662018912,
        -0.29822423990928293,
        -0.6180565962822309,
        -0.08174822039566632
      ],
      [
        0.39171003483869526,
        0.5017089914277921,
        0.009041774275647452,
        -0.5857576242796703,
        0.0624905115193064
      ],
      [
        -0.2633125961809806,
        0.8322673320786445,
        -0.04306011023751255,
        0.849386807772154,
        0.6167455541016484
      ],
      [
        0.5675504011318897,
        -0.29402390491454256,
        0.14987921886276467,
        0.18204983905659722,
        0.8786673435042651
      ],
      [
        -0.8612927282653104,
        0.10439382204533842,
        -0.21366835364046244,
        0.6811528790647925,
        0.32155850040013334
      ],
      [
        0.34011288505369563,
        0.4701408730382979,
        -0.17957770950008278,
        -0.2574664259838344,
        0.06390088623884793
      ]
    ]
  },
  "weights_ho": {
    "rows": 2,
    "cols": 8,
    "data": [
      [
        0.3693262267654398,
        -0.21980732240361656,
        -0.6040194051298924,
        0.7376860520978545,
        -0.3856521524666059,
        0.7666443464682229,
        0.48404647546340085,
        0.5847033457975237
      ],
      [
        -0.29645271861456113,
        -0.20036912849040966,
        0.08214371542332666,
        0.2663007516519018,
        0.4542204315893441,
        -0.142613301478983,
        0.5894360811796862,
        -0.46138790041342403
      ]
    ]
  },
  "bias_h": {
    "rows": 8,
    "cols": 1,
    "data": [
      [
        0.7158377954157871
      ],
      [
        0.8437367572275902
      ],
      [
        0.6781084300723079
      ],
      [
        -0.7403089738863615
      ],
      [
        0.43711453677284595
      ],
      [
        -0.43476393950100656
      ],
      [
        0.6525376254462092
      ],
      [
        0.8507954912132876
      ]
    ]
  },
  "bias_o": {
    "rows": 2,
    "cols": 1,
    "data": [
      [
        -0.27123035099632187
      ],
      [
        0.5800715643604093
      ]
    ]
  },
  "learning_rate": 0.1,
  "activation_function": {}
}
